{"learner":{"attributes":{"best_iteration":"1","best_score":"336.4359023854015","scikit_learn":"{\"_estimator_type\": \"regressor\"}"},"feature_names":[],"feature_types":[],"gradient_booster":{"model":{"cats":{"enc":[],"feature_segments":[],"sorted_idx":[]},"gbtree_model_param":{"num_parallel_tree":"1","num_trees":"22"},"iteration_indptr":[0,1,2,3,4,5,6,7,8,9,10,11,12,13,14,15,16,17,18,19,20,21,22],"tree_info":[0,0,0,0,0,0,0,0,0,0,0,0,0,0,0,0,0,0,0,0,0,0],"trees":[{"base_weights":[9.574688E0,1.9563713E1,-4.3380703E1,2.8684175E1,-1.1580894E2,5.298363E0,-1.3756436E0,-8.3836585E-1,-6.503536E0],"categories":[],"categories_nodes":[],"categories_segments":[],"categories_sizes":[],"default_left":[0,0,0,0,0,0,0,0,0],"id":0,"left_children":[1,-1,3,5,7,-1,-1,-1,-1],"loss_changes":[1.9920699E6,0E0,4.6423922E5,2.0868503E5,5.5313938E4,0E0,0E0,0E0,0E0],"parents":[2147483647,0,0,2,2,3,3,4,4],"right_children":[2,-1,4,6,8,-1,-1,-1,-1],"split_conditions":[1.6370531E0,1.9563713E1,2.277E1,2.82E0,1.8718022E0,5.298363E0,-1.3756436E0,-8.3836585E-1,-6.503536E0],"split_indices":[12,0,0,8,12,0,0,0,0],"split_type":[0,0,0,0,0,0,0,0,0],"sum_hessian":[9.3E1,9E0,8.4E1,4.3E1,4.1E1,1.7E1,2.6E1,6E0,3.5E1],"tree_param":{"num_deleted":"0","num_feature":"17","num_nodes":"9","size_leaf_vector":"1"}},{"base_weights":[-1.6437359E0,2.6994537E2,-5.8453884E1,2.017241E1,8.688058E-2,4.0130013E1,-7.768649E1,1.8139025E-2,3.97556E0,-1.7675536E0,-6.153484E0],"categories":[],"categories_nodes":[],"categories_segments":[],"categories_sizes":[],"default_left":[0,0,0,0,0,0,0,0,0,0,0],"id":1,"left_children":[1,3,5,-1,-1,7,9,-1,-1,-1,-1],"loss_changes":[1.6052458E6,6.4160325E5,1.7248603E5,0E0,0E0,2.4811014E4,1.2688731E5,0E0,0E0,0E0,0E0],"parents":[2147483647,0,0,1,1,2,2,5,5,6,6],"right_children":[2,4,6,-1,-1,8,10,-1,-1,-1,-1],"split_conditions":[1.755664E0,2.93E0,2.96841E3,2.017241E1,8.688058E-2,6.224E0,4.1E0,1.8139025E-2,3.97556E0,-1.7675536E0,-6.153484E0],"split_indices":[13,8,7,0,0,13,8,0,0,0,0],"split_type":[0,0,0,0,0,0,0,0,0,0,0],"sum_hessian":[9.8E1,1.5E1,8.3E1,9E0,6E0,1.3E1,7E1,8E0,5E0,3.9E1,3.1E1],"tree_param":{"num_deleted":"0","num_feature":"17","num_nodes":"11","size_leaf_vector":"1"}},{"base_weights":[1.4697126E1,3.4790326E2,-4.0087475E1,1.5137617E-1,2.882945E1,4.934311E1,-5.6703003E1,-3.846958E-1,5.4757676E0,1.5779027E0,-3.6201103E0],"categories":[],"categories_nodes":[],"categories_segments":[],"categories_sizes":[],"default_left":[0,0,0,0,0,0,0,0,0,0,0],"id":2,"left_children":[1,3,5,-1,-1,7,9,-1,-1,-1,-1],"loss_changes":[1.9409299E6,1.1766262E6,1.4511458E5,0E0,0E0,5.7644176E4,1.1640094E5,0E0,0E0,0E0,0E0],"parents":[2147483647,0,0,1,1,2,2,5,5,6,6],"right_children":[2,4,6,-1,-1,8,10,-1,-1,-1,-1],"split_conditions":[4.14E0,1.75E0,2.96841E3,1.5137617E-1,2.882945E1,3.2258064E1,1.833318E0,-3.846958E-1,5.4757676E0,1.5779027E0,-3.6201103E0],"split_indices":[3,10,7,0,0,14,13,0,0,0,0],"split_type":[0,0,0,0,0,0,0,0,0,0,0],"sum_hessian":[1.01E2,1.2E1,8.9E1,6E0,6E0,1.3E1,7.6E1,8E0,5E0,1.1E1,6.5E1],"tree_param":{"num_deleted":"0","num_feature":"17","num_nodes":"11","size_leaf_vector":"1"}},{"base_weights":[-3.0030334E0,2.5266623E2,-5.7505356E1,1.9422247E1,6.865949E-1,1.5542295E1,-8.369813E1,2.331454E0,-2.3992646E0,-4.7399564E0,-4.9385983E-1],"categories":[],"categories_nodes":[],"categories_segments":[],"categories_sizes":[],"default_left":[0,0,0,0,0,0,0,0,0,0,0],"id":3,"left_children":[1,3,5,-1,-1,7,9,-1,-1,-1,-1],"loss_changes":[1.5063285E6,5.99595E5,1.7432438E5,0E0,0E0,5.80564E4,5.1067688E4,0E0,0E0,0E0,0E0],"parents":[2147483647,0,0,1,1,2,2,5,5,6,6],"right_children":[2,4,6,-1,-1,8,10,-1,-1,-1,-1],"split_conditions":[1.755664E0,1.3686395E0,1.739E1,1.9422247E1,6.865949E-1,1.7E0,5.454E1,2.331454E0,-2.3992646E0,-4.7399564E0,-4.9385983E-1],"split_indices":[13,11,0,0,0,9,2,0,0,0,0],"split_type":[0,0,0,0,0,0,0,0,0,0,0],"sum_hessian":[1.02E2,1.6E1,8.6E1,9E0,7E0,2.3E1,6.3E1,1.6E1,7E0,5.4E1,9E0],"tree_param":{"num_deleted":"0","num_feature":"17","num_nodes":"11","size_leaf_vector":"1"}},{"base_weights":[2.8189425E1,1.9082294E1,-2.094746E1,4.6364124E1,-5.642421E1,4.195629E0,-2.401136E0,-3.9816558E0,2.7109485E0],"categories":[],"categories_nodes":[],"categories_segments":[],"categories_sizes":[],"default_left":[0,0,0,0,0,0,0,0,0],"id":4,"left_children":[1,-1,3,5,7,-1,-1,-1,-1],"loss_changes":[1.7093766E6,0E0,2.1801197E5,1.2557148E5,1.6451023E5,0E0,0E0,0E0,0E0],"parents":[2147483647,0,0,2,2,3,3,4,4],"right_children":[2,-1,4,6,8,-1,-1,-1,-1],"split_conditions":[4.14E0,1.9082294E1,1.809E1,1.014E1,5.809E1,4.195629E0,-2.401136E0,-3.9816558E0,2.7109485E0],"split_indices":[3,0,0,3,2,0,0,0,0],"split_type":[0,0,0,0,0,0,0,0,0],"sum_hessian":[9.4E1,9E0,8.5E1,2.9E1,5.6E1,2.1E1,8E0,4.7E1,9E0],"tree_param":{"num_deleted":"0","num_feature":"17","num_nodes":"9","size_leaf_vector":"1"}},{"base_weights":[-4.3153353E0,2.0988495E2,-5.0761635E1,3.170589E2,3.69667E-1,1.0597888E1,-7.5445595E1,8.097555E-1,2.493878E1,2.1046555E0,-1.5108524E-1,-4.468446E0,4.692442E-1],"categories":[],"categories_nodes":[],"categories_segments":[],"categories_sizes":[],"default_left":[0,0,0,0,0,0,0,0,0,0,0,0,0],"id":5,"left_children":[1,3,5,7,-1,9,11,-1,-1,-1,-1,-1,-1],"loss_changes":[1.1160645E6,4.263553E5,1.4187125E5,6.854724E5,0E0,1.289933E4,8.0630125E4,0E0,0E0,0E0,0E0,0E0,0E0],"parents":[2147483647,0,0,1,1,2,2,3,3,5,5,6,6],"right_children":[2,4,6,8,-1,10,12,-1,-1,-1,-1,-1,-1],"split_conditions":[1.755664E0,2.93E0,1.739E1,1.59E0,3.69667E-1,1.98E0,5.809E1,8.097555E-1,2.493878E1,2.1046555E0,-1.5108524E-1,-4.468446E0,4.692442E-1],"split_indices":[13,8,0,8,0,8,2,0,0,0,0,0,0],"split_type":[0,0,0,0,0,0,0,0,0,0,0,0,0],"sum_hessian":[1.06E2,1.7E1,8.9E1,1E1,7E0,2.6E1,6.3E1,5E0,5E0,6E0,2E1,5.4E1,9E0],"tree_param":{"num_deleted":"0","num_feature":"17","num_nodes":"13","size_leaf_vector":"1"}},{"base_weights":[3.2117913E0,1.8657022E2,-4.00212E1,9.291604E0,1.8043068E1,1.823723E1,-6.524074E1,-1.2282304E0,1.9956732E0,-9.570182E-1,1.8079661E0,-3.8610134E0,2.0666902E0],"categories":[],"categories_nodes":[],"categories_segments":[],"categories_sizes":[],"default_left":[0,0,0,0,0,0,0,0,0,0,0,0,0],"id":6,"left_children":[1,3,5,7,-1,9,11,-1,-1,-1,-1,-1,-1],"loss_changes":[8.31261E5,6.071626E5,1.2854975E5,1.6449695E4,0E0,2.0867117E4,8.6249984E4,0E0,0E0,0E0,0E0,0E0,0E0],"parents":[2147483647,0,0,1,1,2,2,3,3,5,5,6,6],"right_children":[2,4,6,8,-1,10,12,-1,-1,-1,-1,-1,-1],"split_conditions":[1.755664E0,1.79E0,1.778E1,1.631E1,1.8043068E1,9.5E-1,2.714E1,-1.2282304E0,1.9956732E0,-9.570182E-1,1.8079661E0,-3.8610134E0,2.0666902E0],"split_indices":[13,10,0,1,0,9,3,0,0,0,0,0,0],"split_type":[0,0,0,0,0,0,0,0,0,0,0,0,0],"sum_hessian":[9.9E1,1.7E1,8.2E1,1E1,7E0,2.5E1,5.7E1,5E0,5E0,8E0,1.7E1,5.2E1,5E0],"tree_param":{"num_deleted":"0","num_feature":"17","num_nodes":"13","size_leaf_vector":"1"}},{"base_weights":[1.2226263E1,2.4084229E1,-3.7036884E1,2.3281218E1,-7.442513E1,2.679923E0,-2.9082763E0,-5.4623423E0,-1.7971258E0],"categories":[],"categories_nodes":[],"categories_segments":[],"categories_sizes":[],"default_left":[0,0,0,0,0,0,0,0,0],"id":7,"left_children":[1,-1,3,5,7,-1,-1,-1,-1],"loss_changes":[2.4364902E6,0E0,2.2179852E5,1.0564401E5,6.8331625E4,0E0,0E0,0E0,0E0],"parents":[2147483647,0,0,2,2,3,3,4,4],"right_children":[2,-1,4,6,8,-1,-1,-1,-1],"split_conditions":[4.14E0,2.4084229E1,1.739E1,1.162E1,3.948169E-1,2.679923E0,-2.9082763E0,-5.4623423E0,-1.7971258E0],"split_indices":[3,0,0,3,16,0,0,0,0],"split_type":[0,0,0,0,0,0,0,0,0],"sum_hessian":[1E2,7E0,9.3E1,3.6E1,5.7E1,2.7E1,9E0,2.7E1,3E1],"tree_param":{"num_deleted":"0","num_feature":"17","num_nodes":"9","size_leaf_vector":"1"}},{"base_weights":[4.998234E0,3.0223087E2,-3.8563778E1,-2.445501E0,2.7014257E1,-5.27222E1,5.6221363E1,-7.498213E-1,-5.481026E0,3.8853932E-2,4.5166316E0],"categories":[],"categories_nodes":[],"categories_segments":[],"categories_sizes":[],"default_left":[0,0,0,0,0,0,0,0,0,0,0],"id":8,"left_children":[1,3,5,-1,-1,7,9,-1,-1,-1,-1],"loss_changes":[1.3173498E6,1.1669366E6,1.2832408E5,0E0,0E0,1.643951E5,2.419377E4,0E0,0E0,0E0,0E0],"parents":[2147483647,0,0,1,1,2,2,5,5,6,6],"right_children":[2,4,6,-1,-1,8,10,-1,-1,-1,-1],"split_conditions":[4.14E0,1.15E0,5.809E1,-2.445501E0,2.7014257E1,8.79E0,3.64363E3,-7.498213E-1,-5.481026E0,3.8853932E-2,4.5166316E0],"split_indices":[3,9,2,0,0,3,5,0,0,0,0],"split_type":[0,0,0,0,0,0,0,0,0,0,0],"sum_hessian":[9.6E1,1E1,8.6E1,5E0,5E0,7.6E1,1E1,4.8E1,2.8E1,5E0,5E0],"tree_param":{"num_deleted":"0","num_feature":"17","num_nodes":"11","size_leaf_vector":"1"}},{"base_weights":[-9.528405E0,1.0624021E2,-4.9844604E1,1.2424837E1,1.395416E1,-1.8291277E1,-1.05909454E2,2.8483827E0,-9.364719E-1,-2.4661853E0,7.3497194E-1,-6.3732257E0,-1.6491003E0],"categories":[],"categories_nodes":[],"categories_segments":[],"categories_sizes":[],"default_left":[0,0,0,0,0,0,0,0,0,0,0,0,0],"id":9,"left_children":[1,3,5,7,-1,9,11,-1,-1,-1,-1,-1,-1],"loss_changes":[4.6850675E5,4.1061288E5,1.2484839E5,3.1031375E4,0E0,5.445722E4,2.7937812E4,0E0,0E0,0E0,0E0,0E0,0E0],"parents":[2147483647,0,0,1,1,2,2,3,3,5,5,6,6],"right_children":[2,4,6,8,-1,10,12,-1,-1,-1,-1,-1,-1],"split_conditions":[2.61E0,1.1E0,5.5E0,1.82E0,1.395416E1,1.82E3,8.74486E3,2.8483827E0,-9.364719E-1,-2.4661853E0,7.3497194E-1,-6.3732257E0,-1.6491003E0],"split_indices":[8,9,8,8,0,4,5,0,0,0,0,0,0],"split_type":[0,0,0,0,0,0,0,0,0,0,0,0,0],"sum_hessian":[9.4E1,2.3E1,7.1E1,1.7E1,6E0,4.8E1,2.3E1,6E0,1.1E1,2.4E1,2.4E1,1.6E1,7E0],"tree_param":{"num_deleted":"0","num_feature":"17","num_nodes":"13","size_leaf_vector":"1"}},{"base_weights":[1.0201686E1,1.261244E1,-2.3904945E1,5.864775E1,-3.838525E1,-1.0003694E0,6.2695937E0,2.0145636E0,-2.7660816E0],"categories":[],"categories_nodes":[],"categories_segments":[],"categories_sizes":[],"default_left":[0,0,0,0,0,0,0,0,0],"id":10,"left_children":[1,-1,3,5,7,-1,-1,-1,-1],"loss_changes":[8.0281075E5,0E0,1.095165E5,8.123383E4,1.0665417E5,0E0,0E0,0E0,0E0],"parents":[2147483647,0,0,2,2,3,3,4,4],"right_children":[2,-1,4,6,8,-1,-1,-1,-1],"split_conditions":[4.14E0,1.261244E1,1.755664E0,1.377376E0,2.96841E3,-1.0003694E0,6.2695937E0,2.0145636E0,-2.7660816E0],"split_indices":[3,0,13,13,7,0,0,0,0],"split_type":[0,0,0,0,0,0,0,0,0],"sum_hessian":[9.2E1,9E0,8.3E1,1.1E1,7.2E1,6E0,5E0,1.2E1,6E1],"tree_param":{"num_deleted":"0","num_feature":"17","num_nodes":"9","size_leaf_vector":"1"}},{"base_weights":[8.705013E0,1.8570234E1,-2.4541718E1,-6.590952E1,-8.231597E-1,-5.607213E-1,-4.643102E0,3.4985185E0,-1.3778476E0],"categories":[],"categories_nodes":[],"categories_segments":[],"categories_sizes":[],"default_left":[0,0,0,0,0,0,0,0,0],"id":11,"left_children":[1,-1,3,5,7,-1,-1,-1,-1],"loss_changes":[1.1494861E6,0E0,8.604802E4,4.3841125E4,1.1736186E5,0E0,0E0,0E0,0E0],"parents":[2147483647,0,0,2,2,3,3,4,4],"right_children":[2,-1,4,6,8,-1,-1,-1,-1],"split_conditions":[4.14E0,1.8570234E1,2.77536E3,5.5E0,2.71E0,-5.607213E-1,-4.643102E0,3.4985185E0,-1.3778476E0],"split_indices":[3,0,5,3,8,0,0,0,0],"split_type":[0,0,0,0,0,0,0,0,0],"sum_hessian":[9E1,5E0,8.5E1,2.9E1,5.6E1,1.1E1,1.8E1,1.4E1,4.2E1],"tree_param":{"num_deleted":"0","num_feature":"17","num_nodes":"9","size_leaf_vector":"1"}},{"base_weights":[-1.3475196E1,1.0621206E2,-5.441276E1,9.519016E0,1.660192E1,-6.615731E1,1.7491658E0,-1.5895169E0,1.7644058E0,-2.3328638E0,-5.551366E0],"categories":[],"categories_nodes":[],"categories_segments":[],"categories_sizes":[],"default_left":[0,0,0,0,0,0,0,0,0,0,0],"id":12,"left_children":[1,3,5,7,-1,9,-1,-1,-1,-1,-1],"loss_changes":[5.170042E5,5.794024E5,8.889906E4,2.6791566E4,0E0,4.5391594E4,0E0,0E0,0E0,0E0,0E0],"parents":[2147483647,0,0,1,1,2,2,3,3,5,5],"right_children":[2,4,6,8,-1,10,-1,-1,-1,-1,-1],"split_conditions":[1.15E1,1.79E0,5.454E1,2.102E1,1.660192E1,1.8809906E0,1.7491658E0,-1.5895169E0,1.7644058E0,-2.3328638E0,-5.551366E0],"split_indices":[0,10,2,1,0,11,0,0,0,0,0],"split_type":[0,0,0,0,0,0,0,0,0,0,0],"sum_hessian":[9.9E1,2.4E1,7.5E1,1.9E1,5E0,6.7E1,8E0,7E0,1.2E1,5.1E1,1.6E1],"tree_param":{"num_deleted":"0","num_feature":"17","num_nodes":"11","size_leaf_vector":"1"}},{"base_weights":[-7.570349E0,1.2110898E2,-3.3676826E1,-9.43579E-1,1.2602445E1,-7.575681E1,-6.832564E0,-1.8198626E0,-5.1972575E0,1.8027544E0,-1.2298688E0],"categories":[],"categories_nodes":[],"categories_segments":[],"categories_sizes":[],"default_left":[0,0,0,0,0,0,0,0,0,0,0],"id":13,"left_children":[1,3,5,-1,-1,7,9,-1,-1,-1,-1],"loss_changes":[3.379191E5,3.2632972E5,9.20393E4,0E0,0E0,2.387275E4,4.3779777E4,0E0,0E0,0E0,0E0],"parents":[2147483647,0,0,1,1,2,2,5,5,6,6],"right_children":[2,4,6,-1,-1,8,10,-1,-1,-1,-1],"split_conditions":[1.73719E0,1.377376E0,1.817E1,-9.43579E-1,1.2602445E1,3.72E0,3.729355E0,-1.8198626E0,-5.1972575E0,1.8027544E0,-1.2298688E0],"split_indices":[13,13,1,0,0,8,13,0,0,0,0],"split_type":[0,0,0,0,0,0,0,0,0,0,0],"sum_hessian":[9.4E1,1.4E1,8E1,8E0,6E0,2.9E1,5.1E1,1.5E1,1.4E1,1.4E1,3.7E1],"tree_param":{"num_deleted":"0","num_feature":"17","num_nodes":"11","size_leaf_vector":"1"}},{"base_weights":[-1.6406708E1,8.285609E1,-4.9734245E1,1.4617003E2,2.8375895E0,-1.3618167E1,-7.6069626E1,-3.575114E-1,1.2549459E1,9.485125E-1,-9.071166E-1,-2.698673E0,1.2371988E0,-1.0945407E-1,-4.5906124E0],"categories":[],"categories_nodes":[],"categories_segments":[],"categories_sizes":[],"default_left":[0,0,0,0,0,0,0,0,0,0,0,0,0,0,0],"id":14,"left_children":[1,3,5,7,9,11,13,-1,-1,-1,-1,-1,-1,-1,-1],"loss_changes":[3.530391E5,1.3524744E5,7.185216E4,2.4693506E5,6.1110786E3,6.1345285E4,5.1547375E4,0E0,0E0,0E0,0E0,0E0,0E0,0E0,0E0],"parents":[2147483647,0,0,1,1,2,2,3,3,4,4,5,5,6,6],"right_children":[2,4,6,8,10,12,14,-1,-1,-1,-1,-1,-1,-1,-1],"split_conditions":[1.168E1,8.3548386E1,6.66E0,1.1E0,1.13548386E2,1.2254902E2,1.03E0,-3.575114E-1,1.2549459E1,9.485125E-1,-9.071166E-1,-2.698673E0,1.2371988E0,-1.0945407E-1,-4.5906124E0],"split_indices":[0,15,3,9,15,15,10,0,0,0,0,0,0,0,0],"split_type":[0,0,0,0,0,0,0,0,0,0,0,0,0,0,0],"sum_hessian":[1E2,2.4E1,7.6E1,1.2E1,1.2E1,3.4E1,4.2E1,6E0,6E0,7E0,5E0,1.6E1,1.8E1,8E0,3.4E1],"tree_param":{"num_deleted":"0","num_feature":"17","num_nodes":"15","size_leaf_vector":"1"}},{"base_weights":[4.593284E0,2.4177538E2,-3.22058E1,-2.9123154E0,2.3071375E1,2.8263004E1,-6.19228E1,3.9317193E0,-9.34606E-1,5.297495E-1,-3.6253877E0],"categories":[],"categories_nodes":[],"categories_segments":[],"categories_sizes":[],"default_left":[0,0,0,0,0,0,0,0,0,0,0],"id":15,"left_children":[1,3,5,-1,-1,7,9,-1,-1,-1,-1],"loss_changes":[9.7514006E5,1.0699418E6,1.7962197E5,0E0,0E0,8.494602E4,5.3089875E4,0E0,0E0,0E0,0E0],"parents":[2147483647,0,0,1,1,2,2,5,5,6,6],"right_children":[2,4,6,-1,-1,8,10,-1,-1,-1,-1],"split_conditions":[4.14E0,1.44E0,1.642E1,-2.9123154E0,2.3071375E1,6.48E0,3.0462E3,3.9317193E0,-9.34606E-1,5.297495E-1,-3.6253877E0],"split_indices":[3,10,0,0,0,3,7,0,0,0,0],"split_type":[0,0,0,0,0,0,0,0,0,0,0],"sum_hessian":[1.06E2,1.2E1,9.4E1,6E0,6E0,3.1E1,6.3E1,1.4E1,1.7E1,8E0,5.5E1],"tree_param":{"num_deleted":"0","num_feature":"17","num_nodes":"11","size_leaf_vector":"1"}},{"base_weights":[1.7200665E1,2.0692245E2,-1.5274606E1,-2.9904354E0,2.4816595E1,-2.9106367E1,7.084623E1,-4.000874E-2,-3.7483203E0,5.4218287E0,6.797483E-1],"categories":[],"categories_nodes":[],"categories_segments":[],"categories_sizes":[],"default_left":[0,0,0,0,0,0,0,0,0,0,0],"id":16,"left_children":[1,3,5,-1,-1,7,9,-1,-1,-1,-1],"loss_changes":[6.7528206E5,1.32504E6,1.1926702E5,0E0,0E0,1.0871087E5,2.5462688E4,0E0,0E0,0E0,0E0],"parents":[2147483647,0,0,1,1,2,2,5,5,6,6],"right_children":[2,4,6,-1,-1,8,10,-1,-1,-1,-1],"split_conditions":[4.14E0,1.75E0,5.809E1,-2.9904354E0,2.4816595E1,8.4E0,6.084E1,-4.000874E-2,-3.7483203E0,5.4218287E0,6.797483E-1],"split_indices":[3,10,2,0,0,3,2,0,0,0,0],"split_type":[0,0,0,0,0,0,0,0,0,0,0],"sum_hessian":[1.05E2,1.3E1,9.2E1,8E0,5E0,8.1E1,1.1E1,5.2E1,2.9E1,5E0,6E0],"tree_param":{"num_deleted":"0","num_feature":"17","num_nodes":"11","size_leaf_vector":"1"}},{"base_weights":[-1.8911812E1,2.2336199E1,-5.5934296E1,-2.0395554E1,1.0726394E1,-1.688134E1,-7.8697266E1,-2.7666206E0,3.7058187E-1,1.0153054E0,-3.1584656E0,-8.6926274E-2,-4.6340823E0],"categories":[],"categories_nodes":[],"categories_segments":[],"categories_sizes":[],"default_left":[0,0,0,0,0,0,0,0,0,0,0,0,0],"id":17,"left_children":[1,3,5,7,-1,9,11,-1,-1,-1,-1,-1,-1],"loss_changes":[1.5194434E5,4.077235E5,4.2049266E4,4.2128984E4,0E0,4.3524523E4,3.3766812E4,0E0,0E0,0E0,0E0,0E0,0E0],"parents":[2147483647,0,0,1,1,2,2,3,3,5,5,6,6],"right_children":[2,4,6,8,-1,10,12,-1,-1,-1,-1,-1,-1],"split_conditions":[3.72E0,1.45E0,2.056E1,1.1627E3,1.0726394E1,5E-2,5.6E0,-2.7666206E0,3.7058187E-1,1.0153054E0,-3.1584656E0,-8.6926274E-2,-4.6340823E0],"split_indices":[8,9,0,4,0,6,3,0,0,0,0,0,0],"split_type":[0,0,0,0,0,0,0,0,0,0,0,0,0],"sum_hessian":[9.4E1,4.5E1,4.9E1,3.9E1,6E0,2E1,2.9E1,1.6E1,2.3E1,1.2E1,8E0,5E0,2.4E1],"tree_param":{"num_deleted":"0","num_feature":"17","num_nodes":"13","size_leaf_vector":"1"}},{"base_weights":[5.3831105E0,8.442439E0,-1.6092295E1,4.4439206E0,-3.071123E1,3.4842381E0,-2.367763E0],"categories":[],"categories_nodes":[],"categories_segments":[],"categories_sizes":[],"default_left":[0,0,0,0,0,0,0],"id":18,"left_children":[1,-1,3,-1,5,-1,-1],"loss_changes":[3.6301662E5,0E0,1.4925188E5,0E0,1.4854766E5,0E0,0E0],"parents":[2147483647,0,0,2,2,4,4],"right_children":[2,-1,4,-1,6,-1,-1],"split_conditions":[4.14E0,8.442439E0,2.87021E3,4.4439206E0,8.45E0,3.4842381E0,-2.367763E0],"split_indices":[3,0,7,0,0,0,0],"split_type":[0,0,0,0,0,0,0],"sum_hessian":[9.8E1,9E0,8.9E1,9E0,8E1,1E1,7E1],"tree_param":{"num_deleted":"0","num_feature":"17","num_nodes":"7","size_leaf_vector":"1"}},{"base_weights":[1.4584551E1,1.9973418E2,-1.8194494E1,6.6296923E-1,1.5970435E1,5.9127956E1,-3.442156E1,5.4583483E0,3.2141626E-1,-6.138287E-1,-4.3703866E0],"categories":[],"categories_nodes":[],"categories_segments":[],"categories_sizes":[],"default_left":[0,0,0,0,0,0,0,0,0,0,0],"id":19,"left_children":[1,3,5,-1,-1,7,9,-1,-1,-1,-1],"loss_changes":[6.0603E5,3.2137338E5,1.1396203E5,0E0,0E0,3.9856125E4,8.2238016E4,0E0,0E0,0E0,0E0],"parents":[2147483647,0,0,1,1,2,2,5,5,6,6],"right_children":[2,4,6,-1,-1,8,10,-1,-1,-1,-1],"split_conditions":[1.737088E0,1.25E0,2.96841E3,6.6296923E-1,1.5970435E1,4E-2,5.56E0,5.4583483E0,3.2141626E-1,-6.138287E-1,-4.3703866E0],"split_indices":[13,9,7,0,0,6,8,0,0,0,0],"split_type":[0,0,0,0,0,0,0,0,0,0,0],"sum_hessian":[9.5E1,1.2E1,8.3E1,6E0,6E0,1.3E1,7E1,5E0,8E0,5.2E1,1.8E1],"tree_param":{"num_deleted":"0","num_feature":"17","num_nodes":"11","size_leaf_vector":"1"}},{"base_weights":[2.5068445E1,2.1156445E2,-9.9394245E0,-1.9144776E0,2.2239765E1,2.6792175E1,-3.9045437E1,6.558395E0,-2.50638E-1,-2.853574E0,3.4991665E0],"categories":[],"categories_nodes":[],"categories_segments":[],"categories_sizes":[],"default_left":[0,0,0,0,0,0,0,0,0,0,0],"id":20,"left_children":[1,3,5,-1,-1,7,9,-1,-1,-1,-1],"loss_changes":[6.2042156E5,9.260109E5,9.08299E4,0E0,0E0,1.2837205E5,1.04328125E5,0E0,0E0,0E0,0E0],"parents":[2147483647,0,0,1,1,2,2,5,5,6,6],"right_children":[2,4,6,-1,-1,8,10,-1,-1,-1,-1],"split_conditions":[1.6370531E0,1.4057E3,2.036012E0,-1.9144776E0,2.2239765E1,3.40172E3,1.8750376E1,6.558395E0,-2.50638E-1,-2.853574E0,3.4991665E0],"split_indices":[12,4,12,0,0,7,13,0,0,0,0],"split_type":[0,0,0,0,0,0,0,0,0,0,0],"sum_hessian":[9.1E1,1.2E1,7.9E1,7E0,5E0,3.5E1,4.4E1,6E0,2.9E1,3.9E1,5E0],"tree_param":{"num_deleted":"0","num_feature":"17","num_nodes":"11","size_leaf_vector":"1"}},{"base_weights":[1.8070526E1,2.3310373E2,-1.4511137E1,-1.3801272E0,2.196172E1,-2.453583E1,4.7887646E1,1.2616657E-1,-3.3980217E0,-1.5039988E-1,3.8693948E0],"categories":[],"categories_nodes":[],"categories_segments":[],"categories_sizes":[],"default_left":[0,0,0,0,0,0,0,0,0,0,0],"id":21,"left_children":[1,3,5,-1,-1,7,9,-1,-1,-1,-1],"loss_changes":[7.462296E5,7.89549E5,6.227788E4,0E0,0E0,9.817309E4,2.1867186E4,0E0,0E0,0E0,0E0],"parents":[2147483647,0,0,1,1,2,2,5,5,6,6],"right_children":[2,4,6,-1,-1,8,10,-1,-1,-1,-1],"split_conditions":[4.14E0,3.4E0,5.809E1,-1.3801272E0,2.196172E1,1.7526721E0,1.616129E2,1.2616657E-1,-3.3980217E0,-1.5039988E-1,3.8693948E0],"split_indices":[3,3,2,0,0,11,15,0,0,0,0],"split_type":[0,0,0,0,0,0,0,0,0,0,0],"sum_hessian":[1.02E2,1.1E1,9.1E1,6E0,5E0,8E1,1.1E1,5.1E1,2.9E1,5E0,6E0],"tree_param":{"num_deleted":"0","num_feature":"17","num_nodes":"11","size_leaf_vector":"1"}}]},"name":"gbtree"},"learner_model_param":{"base_score":"[2.6550064E2]","boost_from_average":"1","num_class":"0","num_feature":"17","num_target":"1"},"objective":{"name":"reg:squarederror","reg_loss_param":{"scale_pos_weight":"1"}}},"version":[3,3,0]}